{"type":"BasicNetwork","version":"1.3.0","timestamp":1511563463403,"beginTraining":0,"contextTargetOffset":[0,0,0,0],"contextTargetSize":[0,0,0,0],"endTraining":3,"hasContext":false,"inputCount":10,"layerCounts":[3,6,11,11],"layerSums":[-5.758720794365205,-5.758962312142545,-5.758761897184803,-0.8088450012534875,1.0981657602054864,0.34402121845014577,-0.7284922083545808,0.9074591947165463,0,-58.611383500940335,-187.44332818823358,93.46601603067727,231.3693513073179,-171.82562509321272,77.39754128727463,-213.90026001693602,-246.37589604525013,-76.39849798439502,222.40834074301102,0,0,0,0,0,0,0,0,0,0,0,0],"layerFeedCounts":[3,5,10,10],"layerContextCount":[0,0,0,0],"layerIndex":[0,3,9,20],"layerOutput":[0.003145221467351249,0.003144464320508782,0.00314509259911874,0.30813667352600804,0.7499162665673091,0.5851669930757286,0.325525689084499,0.7124799541496402,1,3.5107472863271666e-26,3.9300393449871477e-82,1,1,2.382753808841087e-75,1,1.2714444692514368e-93,1.0007091564453745e-107,6.615366347756625e-34,1,1,113,5,79,83,282,95,19,8,0,0,1],"outputCount":3,"weightIndex":[0,18,73,183],"weights":[-0.8641264253149339,-1.1646575067883207,-2.383544198560602,-1.7904473647289803,-0.6466431213195497,-2.1807278777057877,-1.91767725559563,-1.2292068954299014,-0.7289121540008362,-1.2730875765697547,-1.728103210436819,-2.1740564357085623,-1.257081224244844,-1.2432283943378466,-0.9133772708064689,-0.8240288378827882,-1.7883319983342485,-2.3622203878653365,0.2887243649582838,0.9408529273100283,-0.2127379355416504,-1.0133228731638775,0.9272101439578289,-0.18909871583862378,0.984076217347118,0.0363346602953043,-0.3725439906706409,0.7527580539843663,-0.14644353069370228,-0.9889317120524916,0.8264026289192778,0.6145522232238214,0.3717855335946694,0.41817332283858377,0.9806626321747149,0.22530491863648638,0.3100367104346722,0.8914592705311946,-0.415529039497938,-0.4533055892897812,0.35885517374735443,-0.24930013926990036,0.9529904637433005,-0.08728816419528615,0.3575879762828338,-0.21408976171571262,-0.8369113318209997,0.44716867720672937,-0.40166826523983046,0.30649318036060447,-0.6140844997427605,0.24191115339675484,-0.23709420632745104,-0.2836734321070352,-0.018486063370410442,-0.48029627879512216,-0.04332741110924894,0.14052487558501614,0.991538064374959,-0.8217604976735218,-0.08089871113663967,-0.3021065906312467,-0.610065287681457,-0.1579562933765457,0.9709457364541123,-0.18072634000027565,-0.7395018437993497,-0.7456342705145458,0.09035326829915968,-0.9080998409828807,0.9604477144669987,0.48985225110245495,0.37302181767480047,-0.565334861217011,0.3359456877627034,-0.27336214107449797,-0.955402974870057,0.3964214751556052,0.061908019028005246,-0.7288728521513836,-0.01592877119508307,-0.2213979004064659,-0.25864904026219415,0.7896799957642742,0.4319904942649755,0.8915735913738683,0.3001249035939284,-0.9501005330646017,-0.8749675938963297,0.7491282820460756,-0.7296485608895766,0.6021201895127781,0.7556479183342479,-0.41405179169470596,-0.9476093114160027,-0.3553288742468892,0.42639367278544027,-0.7589104512838869,-0.0907095689224735,0.5423287108715082,0.7032219153752899,-0.7612370514859355,-0.6702043798693,-0.7104825113495314,-0.7882205977780417,-0.9486090805897676,0.16526127267058754,0.381957548676251,-0.11879252651468475,-0.14188527712207222,0.6450563977765809,0.6072725842542663,-0.03601515182025539,-0.8960133356939401,-0.35011572710068206,-0.7228609576632685,0.20172224093764735,0.41561691085926444,-0.41399903740421795,-0.7777147670993303,-0.3976393544616603,-0.4434746017993336,0.11228418980344479,-0.7523139057272981,0.7659416233867691,-0.053973497278860805,0.3973796180564322,0.28246308568571354,-0.3599981859981347,-0.1845646411594961,-0.04444642265798082,0.004989914393134676,0.22608951215601536,0.8592238891321147,-0.8563393827288324,-0.9108998211292252,0.28534353369750365,0.3153231954292597,0.2713989515460331,-0.4245369528517928,0.32668588484965433,-0.3754169815961137,-0.004066880968799147,-0.5517640627771856,-0.009663372335156684,0.9166047580731815,0.2671700709155993,-0.6650242812009157,-0.4582151648224446,-0.6028859981374315,-0.4671043708265179,-0.8783784995271096,-0.3995608211238477,-0.8134780292016273,-0.37306348915421683,0.03319336162550801,0.5847933382562873,0.22328567852804415,0.8211061608097205,-0.5337560478190908,-0.9640526197269357,0.7262755877180584,-0.6891297766852467,-0.9618883306655244,-0.17545007011318559,-0.08521934696241829,-0.5237985210347369,0.9140136520465734,-0.8817065891602947,0.3948008925883659,-0.0023003744512344326,-0.9903479050391484,-0.3902161891463978,0.23138392255032825,0.06627587953476555,-0.5597647721113033,0.8426937654259565,0.6812134699602748,0.1688915373987343,0.1525264464473719,-0.6945345673777652,-0.18158009974711264,-0.21354017270675918],"biasActivation":[0,1,1,1],"activationFunctions":["ActivationSigmoid","ActivationSigmoid","ActivationSigmoid","ActivationLinear"]}